{
  "tokens": [
    "void",
    "public",
    "def",
    "const",
    "include",
    "export",
    "end",
    "class",
    "import",
    "package"
  ],
  "languages": [
    "assembly",
    "c",
    "c-sharp",
    "cpp",
    "css",
    "cuda",
    "go",
    "html",
    "java",
    "javascript",
    "json",
    "kotlin",
    "lua",
    "markdown",
    "matlab",
    "php",
    "protocol-buffer",
    "python",
    "r",
    "ruby",
    "rust",
    "scala",
    "shell",
    "sql",
    "tex",
    "typescript",
    "yaml"
  ],
  "weights": [
    [
      -0.016484828665852547,
      0.05195685848593712,
      -0.014363640919327736,
      -0.13763615489006042,
      0.08446101099252701,
      -0.123016856610775,
      0.08575963973999023,
      -0.31171637773513794,
      -0.2671146094799042,
      -0.19335196912288666
    ],
    [
      1.5497534275054932,
      0.2156485617160797,
      -0.38467341661453247,
      0.5504460334777832,
      2.3872272968292236,
      -0.4144476056098938,
      0.6422538161277771,
      0.042791519314050674,
      0.7006155848503113,
      -0.8274213671684265
    ],
    [
      0.44998985528945923,
      1.840407371520996,
      -0.23374123871326447,
      -0.3220776617527008,
      -0.9363510608673096,
      -0.30199453234672546,
      -0.38903284072875977,
      1.2109452486038208,
      -0.7868954539299011,
      -0.75764399766922
    ],
    [
      1.2845698595046997,
      0.027774978429079056,
      -0.29368162155151367,
      1.0489541292190552,
      2.7879905700683594,
      -0.17468181252479553,
      0.08806164562702179,
      0.15987689793109894,
      -0.5529767274856567,
      -0.4785478711128235
    ],
    [
      -0.17128410935401917,
      -0.13689163327217102,
      -0.10447584837675095,
      -0.4896180331707001,
      -0.22865907847881317,
      -0.51207435131073,
      -0.24637414515018463,
      -0.6460050344467163,
      -0.36812689900398254,
      -0.2565726339817047
    ],
    [
      0.300371915102005,
      -0.10925855487585068,
      -0.06274329870939255,
      0.253877192735672,
      0.35825034976005554,
      -0.09602957963943481,
      -0.035586319863796234,
      -0.18588317930698395,
      -0.21555663645267487,
      -0.14108134806156158
    ],
    [
      -0.3220958709716797,
      -0.526779055595398,
      -0.30213209986686707,
      0.4093392491340637,
      -0.2185586392879486,
      -0.24184827506542206,
      -0.205391526222229,
      -0.8332884907722473,
      1.020155906677246,
      2.706015110015869
    ],
    [
      -0.19486375153064728,
      -0.009496133774518967,
      -0.3013412058353424,
      -0.2504224479198456,
      -0.14414948225021362,
      -0.22094497084617615,
      -0.16896848380565643,
      0.9303135275840759,
      -0.4976469874382019,
      -0.3956468403339386
    ],
    [
      1.1282535791397095,
      2.988121747970581,
      -0.5833809971809387,
      -0.6144983172416687,
      -0.4562596380710602,
      -0.39136356115341187,
      -0.3231196403503418,
      0.6335271000862122,
      0.8484253883361816,
      2.821364164352417
    ],
    [
      -1.0646557807922363,
      -0.7776359915733337,
      -0.6184651255607605,
      1.9340765476226807,
      -0.7491289377212524,
      2.304335832595825,
      -0.6825686693191528,
      -0.44280481338500977,
      0.5320644974708557,
      -0.8865275382995605
    ],
    [
      -0.2628405690193176,
      -0.27908316254615784,
      -0.31498220562934875,
      -0.5531436204910278,
      -0.5846102833747864,
      -0.39284923672676086,
      -0.6413665413856506,
      -0.7751739621162415,
      -0.7374199628829956,
      -0.6732593178749084
    ],
    [
      -0.45932018756866455,
      -0.7801991105079651,
      -0.5292617082595825,
      -0.05724241957068443,
      -0.17105522751808167,
      -0.2401050180196762,
      -0.23234376311302185,
      0.9806687831878662,
      0.9834928512573242,
      1.8289015293121338
    ],
    [
      -0.1714872121810913,
      -0.23080144822597504,
      -0.11609899252653122,
      -0.20193679630756378,
      -0.15830011665821075,
      -0.1377359926700592,
      1.3034533262252808,
      -0.25938281416893005,
      -0.33396977186203003,
      -0.13480781018733978
    ],
    [
      0.08050145953893661,
      -0.17132218182086945,
      -0.34623074531555176,
      -0.17050719261169434,
      -0.38925445079803467,
      -0.4136059880256653,
      -0.6154748797416687,
      -0.3707033395767212,
      -0.5207682847976685,
      -0.7366425395011902
    ],
    [
      -0.07816953212022781,
      -0.12529203295707703,
      -0.0506465844810009,
      -0.08912041783332825,
      -0.08610252290964127,
      -0.08390382677316666,
      -0.08736555278301239,
      -0.2091216742992401,
      -0.18127800524234772,
      -0.11038748174905777
    ],
    [
      -0.16522280871868134,
      0.3155246675014496,
      -0.35882440209388733,
      -0.25397732853889465,
      0.26061752438545227,
      -0.39226558804512024,
      -0.28196412324905396,
      0.9543809294700623,
      -0.9357823133468628,
      -0.22450368106365204
    ],
    [
      -0.0975174680352211,
      -0.14297619462013245,
      -0.06536746770143509,
      -0.100931316614151,
      -0.10523919761180878,
      -0.1022457703948021,
      -0.10537494719028473,
      -0.26261651515960693,
      0.2025945484638214,
      0.48487135767936707
    ],
    [
      -0.5324463844299316,
      -0.5826742649078369,
      2.369887113571167,
      -0.8214613199234009,
      -0.29886361956596375,
      -1.0144150257110596,
      -0.7564604878425598,
      0.317177414894104,
      2.7444164752960205,
      -1.0398023128509521
    ],
    [
      -0.08587738871574402,
      -0.12554305791854858,
      -0.05685091018676758,
      -0.09789241850376129,
      -0.09879971295595169,
      -0.04229724779725075,
      -0.0434766560792923,
      -0.20897479355335236,
      -0.17573095858097076,
      -0.11289717257022858
    ],
    [
      -0.37068265676498413,
      -0.34757858514785767,
      1.783329963684082,
      -0.45537006855010986,
      0.3652757704257965,
      -0.19144906103610992,
      3.177161455154419,
      1.0129936933517456,
      -0.7973337769508362,
      -0.44379639625549316
    ],
    [
      -0.20374524593353271,
      -0.22212736308574677,
      -0.13805782794952393,
      0.05057836323976517,
      -0.19049255549907684,
      -0.13718096911907196,
      -0.19531986117362976,
      -0.4343988001346588,
      -0.43653273582458496,
      -0.28332817554473877
    ],
    [
      -0.29233843088150024,
      -0.6067126989364624,
      1.7687615156173706,
      -0.257961243391037,
      -0.18396306037902832,
      -0.171570286154747,
      -0.2753167450428009,
      0.4563969075679779,
      1.1401128768920898,
      1.456506609916687
    ],
    [
      -0.19957754015922546,
      -0.20569773018360138,
      -0.15408048033714294,
      -0.2600899636745453,
      -0.2771449089050293,
      0.28542089462280273,
      -0.27054303884506226,
      -0.4490303099155426,
      -0.47920727729797363,
      -0.2394762933254242
    ],
    [
      -0.17289845645427704,
      -0.08520524948835373,
      -0.19549016654491425,
      -0.24787801504135132,
      -0.2511444091796875,
      -0.2199825495481491,
      0.05296827480196953,
      -0.4800527095794678,
      -0.5335635542869568,
      -0.24571338295936584
    ],
    [
      -0.03252103552222252,
      -0.03658619523048401,
      0.005392654333263636,
      -0.06740015000104904,
      0.02826639451086521,
      -0.10839781165122986,
      1.1985759735107422,
      -0.1711009293794632,
      -0.343612402677536,
      -0.1408606618642807
    ],
    [
      0.469986230134964,
      0.16159185767173767,
      -0.4412582814693451,
      1.7157939672470093,
      -0.5298957824707031,
      3.8253703117370605,
      -0.4050557613372803,
      0.05593860149383545,
      1.003339171409607,
      -0.910534679889679
    ],
    [
      -0.3688318133354187,
      -0.09908237308263779,
      -0.2598377764225006,
      -0.5133063197135925,
      -0.21347622573375702,
      -0.2901098430156708,
      -0.586108386516571,
      -0.7147688269615173,
      -1.0116097927093506,
      -0.06439336389303207
    ]
  ],
  "biases": [
    -0.47220465540885925,
    0.430819034576416,
    -0.2770363390445709,
    -0.1701100468635559,
    0.7915970683097839,
    -1.1562464237213135,
    -0.7184280157089233,
    -0.3898206055164337,
    -0.7722256779670715,
    1.4932866096496582,
    1.8004510402679443,
    -0.5625694990158081,
    -0.5396357178688049,
    2.7153754234313965,
    -1.327294111251831,
    0.3454979360103607,
    -0.9339666962623596,
    0.707755982875824,
    -1.1034510135650635,
    -0.08701849728822708,
    -0.36774152517318726,
    -0.7668328881263733,
    0.5636763572692871,
    0.031188899651169777,
    -0.5884976983070374,
    -0.0661657378077507,
    1.4196051359176636
  ]
}
